svm_type c_svc
kernel_type rbf
gamma 0.25
nr_class 3
total_sv 45
rho 0.0398569 0.167775 0.143705
label 1 2 3
nr_sv 7 19 19
SV
0 0.009368831960995326 1:4.3 2:3 3:1.1 4:0.1 
0.4386244104464341 0.9556474901217844 1:5.7 2:4.4 3:1.5 4:0.4 
0.06663115831281492 0 1:5.7 2:3.8 3:1.7 4:0.3 
0.002277020749968409 0 1:5.1 2:3.3 3:1.7 4:0.5 
0.3584311257282715 0.01161730569242593 1:4.8 2:3.4 3:1.9 4:0.2 
1 0.9686218445123266 1:4.5 2:2.3 3:1.3 4:0.3 
0.4588582343970687 0 1:5.1 2:3.8 3:1.9 4:0.4 
-0.5517100820489875 0 1:7 2:3.2 3:4.7 4:1.4 
-0 1 1:6.9 2:3.1 3:4.9 4:1.5 
-0 1 1:6.5 2:2.8 3:4.6 4:1.5 
-0 1 1:6.3 2:3.3 3:4.7 4:1.6 
-0.5428293066095111 0 1:4.9 2:2.4 3:3.3 4:1 
-0 0.4043421697812586 1:5 2:2 3:3.5 4:1 
-0 1 1:6.1 2:2.9 3:4.7 4:1.4 
-0 1 1:5.6 2:3 3:4.5 4:1.5 
-0 1 1:6.2 2:2.2 3:4.5 4:1.5 
-0 1 1:5.9 2:3.2 3:4.8 4:1.8 
-0 1 1:6.3 2:2.5 3:4.9 4:1.5 
-0 1 1:6.8 2:2.8 3:4.8 4:1.4 
-0.1664909718151888 1 1:6.7 2:3 3:5 4:1.7 
-0 1 1:6 2:2.9 3:4.5 4:1.5 
-0.06379158916087012 1 1:6 2:2.7 3:5.1 4:1.6 
-0 1 1:5.4 2:3 3:4.5 4:1.5 
-0 0.2739151645677013 1:6 2:3.4 3:4.5 4:1.6 
-0 1 1:6.7 2:3.1 3:4.7 4:1.5 
-1 0 1:5.1 2:2.5 3:3 4:1.1 
-0.1175760813108472 -0 1:6.3 2:3.3 3:6 4:2.5 
-0.7337655049344587 -1 1:4.9 2:2.5 3:4.5 4:1.7 
-0 -1 1:6.5 2:3.2 3:5.1 4:2 
-0.4272359406177839 -0 1:7.7 2:2.6 3:6.9 4:2.3 
-0.09993001758512109 -1 1:6 2:2.2 3:5 4:1.5 
-0 -1 1:5.6 2:2.8 3:4.9 4:2 
-0 -1 1:6.3 2:2.7 3:4.9 4:1.8 
-0 -1 1:6.2 2:2.8 3:4.8 4:1.8 
-0 -1 1:6.1 2:3 3:4.9 4:1.8 
-0 -0.8300343547007096 1:7.2 2:3 3:5.8 4:1.6 
-0.4053395104913362 -0.1309214830218772 1:7.9 2:3.8 3:6.4 4:2 
-0 -1 1:6.3 2:2.8 3:5.1 4:1.5 
-0 -0.6237238841373084 1:6.1 2:2.6 3:5.6 4:1.4 
-0 -1 1:6 2:3 3:4.8 4:1.8 
-0.1614084173479853 -0.7730127984352919 1:6.9 2:3.1 3:5.1 4:2.3 
-0 -0.3205648140537729 1:5.8 2:2.7 3:5.1 4:1.9 
-0 -1 1:6.3 2:2.5 3:5 4:1.9 
-0 -1 1:6.5 2:3 3:5.2 4:2 
-0 -1 1:5.9 2:3 3:5.1 4:1.8 
