20 200
</s> 0.002001 0.002210 -0.001915 -0.001639 0.000683 0.001511 0.000470 0.000106 -0.001802 0.001109 -0.002178 0.000625 -0.000376 -0.000479 -0.001658 -0.000941 0.001290 0.001513 0.001485 0.000799 0.000772 -0.001901 -0.002048 0.002485 0.001901 0.001545 -0.000302 0.002008 -0.000247 0.000367 -0.000075 -0.001492 0.000656 -0.000669 -0.001913 0.002377 0.002190 -0.000548 -0.000113 0.000255 -0.001819 -0.002004 0.002277 0.000032 -0.001291 -0.001521 -0.001538 0.000848 0.000101 0.000666 -0.002107 -0.001904 -0.000065 0.000572 0.001275 -0.001585 0.002040 0.000463 0.000560 -0.000304 0.001493 -0.001144 -0.001049 0.001079 -0.000377 0.000515 0.000902 -0.002044 -0.000992 0.001457 0.002116 0.001966 -0.001523 -0.001054 -0.000455 0.001001 -0.001894 0.001499 0.001394 -0.000799 -0.000776 -0.001119 0.002114 0.001956 -0.000590 0.002107 0.002410 0.000908 0.002491 -0.001556 -0.000766 -0.001054 -0.001454 0.001407 0.000790 0.000212 -0.001097 0.000762 0.001530 0.000097 0.001140 -0.002476 0.002157 0.000240 -0.000916 -0.001042 -0.000374 -0.001468 -0.002185 -0.001419 0.002139 -0.000885 -0.001340 0.001159 -0.000852 0.002378 -0.000802 -0.002294 0.001358 -0.000037 -0.001744 0.000488 0.000721 -0.000241 0.000912 -0.001979 0.000441 0.000908 -0.001505 0.000071 -0.000030 -0.001200 -0.001416 -0.002347 0.000011 0.000076 0.000005 -0.001967 -0.002481 -0.002373 -0.002163 -0.000274 0.000696 0.000592 -0.001591 0.002499 -0.001006 -0.000637 -0.000702 0.002366 -0.001882 0.000581 -0.000668 0.001594 0.000020 0.002135 -0.001410 -0.001303 -0.002096 -0.001833 -0.001600 -0.001557 0.001222 -0.000933 0.001340 0.001845 0.000678 0.001475 0.001238 0.001170 -0.001775 -0.001717 -0.001828 -0.000066 0.002065 -0.001368 -0.001530 -0.002098 0.001653 -0.002089 -0.000290 0.001089 -0.002309 -0.002239 0.000721 0.001762 0.002132 0.001073 0.001581 -0.001564 -0.001820 0.001987 -0.001382 0.000877 0.000287 0.000895 -0.000591 0.000099 -0.000843 -0.000563 
of -0.326026 0.538208 -0.025357 0.388843 -0.702749 0.153776 0.013441 0.791232 0.023073 -0.181842 0.366293 0.038118 0.938775 0.505926 0.512213 0.343391 -0.222257 0.593579 0.537905 0.125621 0.151570 1.222392 0.458807 -0.406164 -0.816343 0.359341 -0.254786 -1.033897 -0.145010 -0.889618 -0.109144 0.540278 -0.527091 0.661148 -0.091846 -0.639002 -0.174570 0.210633 0.781964 0.470684 0.123993 -0.037094 -0.509377 -0.906578 -0.158855 -1.016702 0.428533 -0.560933 0.176245 0.567261 -0.184903 -0.949094 0.074697 0.175396 -0.105684 -0.510222 -0.354484 0.595285 0.830072 0.929927 0.541428 -0.903522 0.714287 0.828667 0.043234 0.528066 -1.022711 0.308761 0.622071 0.062259 -0.305511 -0.572491 0.186200 -0.008361 -0.295254 0.326707 1.143263 0.608500 -0.349201 0.847334 1.250933 -0.480376 -0.035511 0.486295 -0.536782 0.209772 0.489189 0.292126 0.780890 0.360186 0.653871 -0.589393 0.391438 -0.298076 1.205560 -0.035694 0.070040 0.010449 -0.349242 -0.039114 -0.317367 0.335203 0.244776 -0.209750 -0.048829 -0.239931 -0.821757 -0.497043 -0.061746 -0.031722 0.294051 -1.345356 -0.671983 -0.048427 -0.825702 0.539719 -0.223901 -0.072879 0.212519 0.007905 -0.174837 0.319140 -0.003044 0.076534 -0.314348 -0.687017 0.323743 -0.342966 0.610421 0.550268 0.060112 -0.736253 0.484297 -0.643649 0.499050 -0.252712 -0.017466 -0.186530 1.683878 0.705126 -0.937152 0.762149 -0.189741 -0.295787 -0.580018 -0.133915 0.049548 -0.220524 0.115294 0.926463 -0.096394 -0.061999 -0.163900 0.253239 -0.247280 -0.313145 -0.169737 0.260882 0.437589 0.042380 0.557570 -0.061594 -0.331961 -0.306277 -0.625153 -0.655262 -0.636048 -0.355696 0.452674 -0.750511 0.665582 0.834399 -0.504111 -0.394113 -0.614249 -1.288679 -0.063880 0.545050 0.702347 -0.711525 -0.530382 -0.416987 -0.013029 0.118970 1.033750 -0.448502 -0.449307 -0.429143 0.772372 0.684090 0.099312 0.098654 0.409614 0.468801 1.363837 0.196452 -0.475361 -0.053382 -0.427406 -0.223871 
the 0.101229 0.693294 -0.662946 -0.000099 0.078662 0.276550 -0.207449 1.345589 -0.083904 0.280648 -0.349502 -0.287362 0.996568 -0.644153 1.075600 0.049546 -0.597724 -0.096385 -0.447211 -0.258049 0.025952 0.935487 0.926495 -0.377048 -0.332857 0.508844 0.006283 -0.615283 0.141223 -0.572796 -0.400435 0.536633 -0.152738 -0.179839 0.630234 -0.263334 0.810739 -0.328023 -0.305292 0.374900 -0.223079 -0.251643 -0.751668 -0.293526 0.209330 -0.873197 0.163072 0.265094 0.688966 1.025803 -0.194458 -0.784321 -0.381571 0.588779 -0.436230 -0.145182 -0.242739 0.948979 1.360843 0.483848 -0.228459 0.346422 0.595318 -0.200407 0.250206 0.466316 -0.193483 0.356718 0.909811 0.427370 0.426968 -0.352643 -0.283136 0.834899 -1.075568 0.834245 0.239406 0.528479 -0.137263 0.787070 0.423827 -0.075279 0.337226 0.137762 -0.498138 0.289334 0.318405 1.043638 0.848305 0.162064 0.670718 -1.114095 0.479109 -0.434198 -0.068204 0.083172 0.287136 0.569463 0.279623 0.082942 -0.208979 -0.441765 -0.473878 -0.413255 -0.943562 0.418631 -0.487871 -0.020134 -0.045136 -0.374406 -0.063207 -0.645377 0.373511 1.018991 -0.548591 0.484862 0.760877 0.530227 0.003431 -0.077391 -0.044585 -0.709770 -0.338202 0.370693 -0.161792 -0.231860 0.598997 -0.256896 0.019947 0.974337 -0.299019 -0.289805 0.230156 -0.408109 0.453227 0.393162 -0.180026 -0.284931 0.294740 0.585138 -0.324124 0.273031 0.651849 0.049023 -0.205219 0.221573 0.418366 0.506173 -0.534771 0.247303 0.039568 -0.084269 -0.504994 0.366418 -0.055334 -0.317394 -0.319962 -0.122108 0.607492 0.448709 0.316939 0.542027 -0.047757 0.176667 -1.320040 -0.785325 -0.536777 -0.640382 -0.633450 -0.033641 -0.705876 0.957579 0.261724 0.278836 0.166227 -1.539752 0.422999 0.513906 0.479903 -0.757198 0.340956 0.049647 0.177542 0.253625 0.475139 0.488379 -0.124763 -0.136547 0.899126 0.507223 0.159921 0.278169 -0.076727 0.208711 0.599731 -0.280840 0.579586 0.661654 -0.786550 0.037808 
in 1.124887 -0.353350 -0.228634 0.328772 -0.168146 0.500261 -0.105215 0.391258 -0.901019 0.440077 -0.415824 -0.086071 1.142075 0.061323 0.038094 0.330799 -0.633005 -0.743894 0.559447 0.674984 0.045193 0.171018 -0.277754 0.235386 0.442336 0.736104 0.264255 -0.338405 -0.756574 -0.258889 -0.414065 1.260216 -0.385323 -0.236675 0.001896 -0.449097 0.637635 0.623444 -0.316922 0.417878 -0.950725 0.198668 -0.551127 0.195970 1.337141 -0.444564 0.125896 0.044524 0.856271 1.560752 0.448563 -0.331618 -0.198068 0.285537 -0.263263 0.484438 -0.166420 1.342994 -0.520965 1.370455 -0.254286 0.164269 0.065278 -0.759962 0.742185 -0.284395 -0.851929 0.087842 0.180186 -0.196363 -0.398320 0.553365 0.292221 0.062021 -0.514641 0.739382 1.323269 0.163616 0.192345 0.739648 -0.723354 -0.197421 0.254363 0.322703 -0.596974 -0.579725 0.469681 -0.267255 0.532869 0.686377 0.810000 -0.150569 -0.662252 0.229756 0.267506 0.152105 -0.375725 0.252889 -0.651601 0.109593 0.047573 -0.264712 -0.502102 0.308472 -0.646725 0.484914 -1.893525 -0.654056 -0.039972 -0.223211 0.242209 0.696269 -1.823830 1.239774 -0.307067 0.494150 -0.025235 0.730192 0.429391 0.071719 -0.523618 -0.430463 0.104301 -0.454563 0.146454 -0.175464 0.157296 0.155229 0.361409 0.718297 -0.719474 0.877894 0.467051 -0.914571 -0.562016 0.003297 -1.024273 0.118849 -0.719402 0.621058 -1.199653 0.387377 0.018536 -0.507074 -0.165565 -0.287462 -0.681215 0.421812 -0.331078 0.308152 0.058340 0.139020 -0.162417 0.342358 -0.244493 0.682910 0.396099 -0.621019 -0.273695 -0.588398 0.532219 -0.775027 -0.707552 -0.326718 -0.237557 -0.300716 0.061078 -1.179982 0.056420 -0.138475 -0.335730 0.910978 0.571781 0.574791 0.876565 -0.860738 -0.452372 0.831910 0.653605 -0.492562 -0.185026 0.002590 -0.490072 0.335927 0.710780 0.026698 0.520113 0.830897 0.076309 -0.235730 -0.475940 -0.062348 0.584440 -0.366178 -0.099955 0.395924 0.118279 0.331900 -0.564364 -1.181476 
journal 0.367818 -1.820827 0.104269 0.096635 -0.620390 -1.017856 1.067663 0.905802 1.529763 -0.269950 0.336736 1.291969 0.959561 -0.941430 -1.178607 -1.659680 -0.536715 -0.220245 2.053523 0.059970 0.977522 -0.398561 -0.456809 0.356266 1.758225 -0.694871 -1.664054 -1.078703 1.251519 0.274049 -1.254789 1.741720 -2.666538 0.664757 1.199283 -0.515112 0.468370 0.072384 0.691883 0.150862 0.601228 0.111433 0.395039 -0.686709 0.370452 -0.723507 -2.395662 -3.195353 1.093990 -0.201183 0.113737 0.568112 0.149286 -2.093199 -1.511951 0.637349 0.465657 -1.693853 1.789548 1.119638 1.016465 1.362944 0.776144 -0.390611 -0.506147 -0.342511 0.377620 0.061042 -0.964685 0.655133 0.061089 -0.840056 -0.408253 -0.529129 -1.697620 -0.349915 1.392255 -0.007191 -1.977424 -0.897301 -0.047850 -0.518077 -0.318356 2.208442 1.908851 -0.160174 1.046752 -0.943388 -0.449179 -0.103117 0.745557 -0.683827 1.086640 1.225371 0.811374 0.115504 1.463505 0.399218 -0.288932 -0.266645 1.861413 0.781582 -0.157828 -0.827429 -0.555439 -0.980909 0.501756 -0.818439 -0.200240 0.649729 -1.176496 -0.456154 -1.772696 -1.117977 -0.907946 -0.562969 -0.633709 -0.575880 1.652710 0.505921 0.913649 -0.683706 -0.475439 -0.918571 -0.749573 -3.023903 -0.147333 1.524106 1.445728 0.585164 -0.582065 -0.419309 0.797443 1.202185 0.156721 -0.507308 2.133186 -0.075460 0.754335 0.011285 0.580052 -1.387612 -0.232414 0.287623 -1.622261 0.608532 0.367745 1.564497 -0.669239 -0.143479 0.073325 -0.469395 -0.902800 -0.695853 -1.705116 -1.103160 1.087788 -1.145656 1.414863 0.554355 0.571757 0.712852 0.838753 -0.599281 -1.285863 -1.078055 0.274793 0.550000 0.661883 -1.889916 0.893948 0.528913 -0.588984 -0.874698 0.943824 0.457842 1.394374 0.900026 -0.169874 -0.781559 0.588798 -0.174151 0.572554 0.082253 0.511855 -1.486114 -0.240064 -0.863446 -0.962986 0.493768 0.446478 0.628343 -0.948381 1.757916 0.953606 -0.036760 0.110204 -0.149927 0.743729 1.869830 
and -0.065688 -0.795875 -0.034420 0.223092 -0.766645 0.264979 0.604736 -0.014148 0.069710 0.478215 0.183494 -0.111296 1.121631 0.278459 0.258061 -0.070283 -0.329773 -0.670592 -0.082687 -0.002834 0.363088 0.159295 -0.149029 -0.542363 0.555264 0.063284 -0.019627 -1.202116 0.695248 -0.235942 -0.407388 -0.447185 -0.436096 -0.559318 0.465620 0.643558 -0.043286 0.321974 -0.243352 0.060545 -0.011777 0.035190 0.455586 0.226909 0.270680 -1.118697 0.455073 0.037501 0.322094 0.949297 0.082621 -0.735505 -0.212733 -0.212440 -0.197103 0.491576 0.085324 0.390354 0.261550 -0.043703 0.474446 0.110269 -0.538665 -0.028502 0.300212 0.563311 -0.402504 0.559875 1.443455 0.141960 -0.664597 -0.200931 0.024321 0.282676 -0.052753 0.488262 -0.192806 1.129623 -0.763595 -0.715160 0.095079 0.430808 0.278771 0.431467 -1.491168 -0.410513 -0.062982 0.288580 0.483174 0.822886 0.190438 -0.709199 0.054639 0.149457 -0.011024 0.581455 -0.525834 -0.068183 1.008065 0.317993 0.264114 0.510919 -0.336877 0.875182 -0.169915 -0.124183 -0.127627 -1.068845 -0.318412 -0.320304 -0.881764 -0.492535 -0.522162 0.628135 -0.173596 -0.170019 0.071989 0.787843 0.067227 0.358858 1.057387 0.063817 -0.495471 -0.185945 -0.616753 -0.289639 0.108461 -0.261049 -0.436570 0.778440 -0.051101 -0.081017 0.685144 -0.781617 -0.416636 -0.922501 0.456581 -0.803312 -0.644890 0.046746 0.970874 -0.121321 -0.076775 0.076940 -0.369426 0.848018 -0.111453 -0.515033 -0.012701 0.095982 -0.217716 -1.319959 -1.651602 -0.072933 -0.331459 -0.998113 -0.116474 -1.120854 0.039182 0.753984 0.062613 0.609774 -0.639449 -0.971287 -0.245431 -0.454553 -0.725622 -0.890891 0.430409 -0.074389 -0.449245 0.115069 0.398609 0.397120 0.829806 0.385365 -0.040771 0.150880 0.164596 -0.094915 0.742110 -0.523930 0.297510 0.619956 1.072980 -0.899877 0.454647 -0.172092 -0.049881 1.064996 -0.201710 0.119005 0.244880 0.111787 0.318635 -0.190835 -0.129683 0.153601 0.497912 -0.609243 
medicine -2.358748 0.821756 0.731593 1.664156 -0.096800 1.904855 -0.452359 0.418371 0.351326 2.103774 1.294112 -0.517342 0.994343 0.773251 -0.342877 -1.301374 0.252093 1.223263 0.752973 -0.847585 -1.069952 0.788287 1.009460 -0.704158 0.931643 0.094609 -1.650333 -0.339642 0.087326 1.064558 -0.634996 1.789300 -1.096052 0.521442 0.241386 1.680507 -1.410848 0.265278 1.109385 2.120591 1.680278 0.973546 0.165500 -0.865684 -0.795427 -0.242841 -0.073654 -0.679346 -0.182502 1.113438 -0.883879 -1.306006 0.858057 -0.518768 0.715016 0.419882 -0.553393 -0.091613 1.348320 1.047300 1.686085 -0.685114 -1.276497 1.468719 -0.358161 0.962578 1.543989 0.082557 1.052294 1.097023 -2.136426 0.875891 -0.769773 -0.955168 0.166771 -0.416353 0.830038 0.929865 -1.108924 1.051138 1.066531 -0.420856 -0.101565 -0.141949 0.501772 -1.086261 1.566450 -1.000705 -0.044641 0.721331 0.700294 0.043163 1.445989 2.270783 0.618025 -2.123451 0.205136 0.962392 0.230264 -0.184315 -0.424876 0.502246 -0.084243 -0.589228 1.128328 -0.910901 -1.467535 -0.540489 -1.735903 0.544827 1.443052 -1.241146 -1.159032 -0.888217 -0.798690 0.081060 1.137730 0.127488 1.459151 0.534027 -0.521224 1.172148 0.670958 -1.561998 -0.326960 -1.440783 0.080010 0.780052 -1.874312 0.454255 0.065351 -2.198718 -1.373435 0.109746 0.356109 1.056361 1.317447 -0.945699 2.345437 1.056589 -1.066042 1.400489 -0.420897 1.187077 -0.637049 -0.062473 1.785074 0.740916 0.696319 0.036680 -0.557176 -0.101550 -0.640695 0.088122 0.950114 -1.768207 -0.948383 -0.196845 1.769509 -0.292411 -0.924862 1.061477 1.208535 -0.694944 0.468263 -0.621729 1.949012 0.987816 1.257575 -0.863818 1.114561 0.789945 0.199874 0.281660 2.255782 -0.940867 -0.768436 -1.242171 -1.290980 -1.182972 -0.699713 -0.726296 -0.303286 -0.069258 -0.316736 0.546667 0.180134 0.109666 -0.887679 0.582970 0.741508 0.094729 0.737906 0.543134 1.730353 0.750535 -0.428033 -1.013603 0.677228 0.227613 
a 0.776907 0.116470 -0.097672 -0.302704 1.260565 -0.815405 0.536981 -0.750942 -0.459004 0.224946 -1.073594 -0.686932 -0.312979 0.335821 0.523626 -0.239058 -1.006033 1.029817 -0.218345 -0.530136 -0.242686 0.500965 -1.329392 -0.732793 0.028642 0.357796 0.309391 -0.295692 -0.746484 -1.095481 -0.146658 0.678412 -1.365042 0.074839 -0.538247 -0.779167 -0.362333 -1.031596 -0.402681 0.334851 0.318166 -0.104961 0.102902 -0.233430 -0.717349 -0.490637 0.235015 -0.157996 1.572287 0.795771 -0.130997 -1.103863 -1.040541 0.416355 0.500261 -0.893871 -0.778730 -0.549020 0.077446 1.040334 0.311893 0.028686 1.129852 -0.673550 0.158520 1.131533 0.500124 0.340887 0.940935 -0.316614 -0.125157 -0.369501 -0.721357 -0.325253 0.050610 0.624542 -0.037635 0.650396 -0.559817 0.054367 1.119948 -0.372833 -0.106024 0.768573 -0.375569 0.547333 1.068116 0.255490 -0.702477 1.109435 1.321387 -1.246482 0.341306 0.187030 0.321670 0.336852 -0.081468 0.315637 -0.515707 0.284099 0.122855 0.689901 0.980293 -0.650285 0.546925 -0.212226 -1.310957 1.158693 -0.320471 -0.266010 -0.604966 -0.167710 -1.034333 -0.184140 -0.364148 1.167866 0.818306 0.919176 -0.297101 0.212666 -0.266091 -1.197725 0.262657 0.186239 -0.258970 0.184152 -0.776895 -0.667376 -0.617590 0.613835 0.623032 0.359983 -0.582962 -0.419492 -0.743268 -0.032226 -0.415975 0.577704 0.027281 0.285595 -0.298901 0.515486 -0.277582 0.514225 -0.836909 -0.504810 -0.933450 -0.347226 -0.102879 -0.235974 0.156843 0.988182 1.035511 1.180591 0.619420 -0.458805 -0.743618 0.353227 0.902101 -0.743389 0.370221 -0.488647 -0.596806 0.606334 -0.510367 0.314291 -1.021401 -1.013439 -0.716316 -0.088645 -1.063187 0.845703 1.905670 -0.351887 0.560128 -0.314709 -0.070030 0.328770 -0.839581 -0.416528 1.133636 0.410940 -1.223187 -0.545427 0.276213 -0.680129 0.479730 -0.483414 0.903868 0.933257 0.664828 0.489584 -0.461718 0.591682 0.181975 0.585544 -0.479076 -0.058223 -0.440940 0.914056 
medical -0.272205 -1.224953 0.325126 -0.240554 -1.828790 -0.939142 2.842046 0.223364 1.159310 -0.772715 1.039325 2.385750 -0.759135 -0.509803 -2.460511 -1.626195 1.369728 -1.729229 2.283576 -0.069235 3.097964 0.131569 -1.316363 0.458914 2.542521 -0.040192 -1.394848 -0.844003 0.687545 0.183776 -0.632771 1.353366 -0.749014 1.349329 0.868059 0.157863 0.851738 -0.467663 -0.256748 0.330683 -0.141771 0.811814 0.927476 0.041468 -0.901113 -0.148497 -2.194717 -1.472721 0.721500 -1.710438 1.488846 1.161999 -0.334802 -0.721156 -0.907425 -0.581132 0.789108 -1.566688 1.334998 1.614538 1.266129 -0.315227 0.712077 0.917822 -0.404893 0.186170 2.309608 0.113896 -2.397978 1.322307 -0.878788 0.027671 -0.030366 -0.461027 -0.341455 0.833779 1.930198 -0.285779 -3.008932 -0.416736 0.853768 -0.664728 -0.105041 2.708451 1.752560 -2.059455 0.158238 -1.027573 -1.162008 0.270821 0.655504 -0.762071 1.278785 1.386720 0.115311 0.488300 -0.001632 -1.310938 0.580365 -1.096682 1.307370 0.505423 -1.316776 0.157734 0.818217 -0.749588 1.318990 0.108554 -0.938037 1.225489 -1.206916 -1.212930 -1.091268 -1.353639 -1.218884 -1.007255 -0.385417 -2.133931 2.010018 0.535377 1.487994 -1.179786 0.332086 -1.412846 -0.474536 -2.068758 -0.004348 0.758273 -0.971160 0.946633 -0.846984 1.285850 -1.015059 0.285985 0.274273 -0.727062 3.069790 0.138113 0.731311 1.661611 -0.266004 -1.842892 -0.382394 0.224904 -0.860805 1.326974 1.515820 1.276136 -1.428858 -1.063095 0.998723 0.030888 0.068320 -0.005809 -0.052743 -1.085051 0.557483 -0.501077 0.519892 2.255569 0.284352 -0.563664 2.215748 0.377473 -0.941707 -0.818728 -0.249119 1.308994 0.994752 -0.266802 0.661785 1.851186 -2.797821 -1.261317 0.349630 0.904166 1.859016 0.574094 -1.605804 -0.917566 1.148160 0.477124 2.014319 -0.323557 -0.181929 0.133693 0.020282 -1.961776 -1.318074 0.235619 1.738899 0.094727 -2.119750 1.220463 -0.923901 0.800915 0.202396 -0.440635 0.542767 0.854339 
to 1.106730 -0.626824 -1.905981 0.332821 -0.704568 0.118301 -1.268186 0.163338 0.435757 -0.585784 -0.239674 0.746272 0.740851 0.201475 0.672053 -0.590740 -0.804790 -0.422431 -0.589082 -0.231317 -1.240126 -1.124590 -0.314176 -0.011828 -0.359190 -0.467131 0.025691 -0.814897 0.682922 0.092660 -0.698295 -0.768485 1.424780 0.320657 0.398357 1.856106 0.647559 1.325684 -0.543463 0.218198 0.166352 -0.957079 -0.310357 0.173911 0.985052 -0.399220 -0.538185 0.510994 0.092236 1.319481 -1.269997 -0.935523 -0.292357 -0.184075 0.338203 -0.778567 -0.369813 0.856994 0.399228 -0.178348 -1.412106 1.290441 1.228258 -0.644314 0.808703 -0.384451 -0.061474 0.220527 0.279326 -0.578430 1.081126 0.803014 -0.425684 -0.299031 1.576683 0.474771 1.500409 -0.046072 0.482284 -0.869011 1.818590 -0.026282 -0.176341 1.481276 -0.519799 -0.031201 -0.227543 0.979743 0.883095 -0.696337 0.152228 -0.824307 -0.570432 0.024822 -1.485106 1.598049 0.550080 0.218582 0.009061 0.651306 -0.049498 -1.353601 -0.136227 -0.131790 -0.010510 -0.141200 0.010095 -0.201305 -1.420604 -0.645427 0.587495 -0.649310 0.386444 0.234864 -0.782029 -0.167020 0.434346 2.223813 -1.645739 0.221948 -0.489500 1.111084 -0.160420 -0.738201 -0.325625 0.328629 0.776081 -1.096704 -0.572049 -0.230908 -0.619705 -0.835974 0.334712 -0.604992 -1.195748 0.046885 -0.544626 -0.989136 -1.937881 0.901583 0.172140 0.418958 0.551801 0.784918 -1.400110 0.194167 -0.236349 0.558004 0.712425 1.719841 -0.436434 0.342785 1.662879 -0.129669 0.476994 0.413371 0.286252 1.225791 -0.685373 -0.949762 0.912920 -1.080784 0.052741 -0.028439 -0.316511 -0.483982 0.423805 0.574380 0.632219 -1.308049 -1.242970 0.983951 1.277157 -1.418220 -0.607540 -0.860078 2.189525 0.121448 -0.178374 -0.038069 -0.044461 -0.018351 0.645046 2.146243 -0.194271 1.136357 0.099175 1.284860 -0.840536 -0.318808 -1.402937 -1.298358 -1.264936 -0.272084 -0.953736 0.069421 0.389581 -0.202809 -0.287044 -0.304513 
society -2.066327 0.004784 1.339663 1.999100 -0.746927 0.620070 1.005026 0.859622 0.110446 -0.199330 1.472537 -2.809710 -0.831444 -0.761635 -1.443285 -0.918057 -0.635270 0.786005 -0.567581 -1.912648 0.737119 0.724517 1.044668 -0.600730 1.037593 -2.200776 1.214417 1.052087 0.953044 1.228245 0.150606 0.818895 -1.364272 -0.846997 -1.670386 0.939678 -1.152612 0.955056 -0.218790 1.592365 -0.155547 1.493912 0.617179 -1.366301 -0.766655 -0.613862 1.087054 -0.929791 -0.429070 -1.332638 -1.004318 -1.159002 0.298890 -0.013081 0.632745 0.922222 -0.968686 1.135995 0.724711 1.427147 1.147336 -1.497363 -1.853342 1.769607 -1.064642 -0.450433 0.838113 -0.020626 0.247959 1.186285 -0.440281 1.114680 -1.076018 -0.779420 -1.661273 -0.945480 0.626066 -0.588064 -0.895651 -0.186042 1.680807 0.545680 0.537494 0.034568 -0.779517 -0.886661 -1.294070 0.016238 0.478864 0.326662 1.056527 0.136722 1.939260 0.885701 0.885145 0.518540 2.022522 0.258909 -1.336632 1.176265 -1.717889 -0.118049 -0.413610 -1.894989 1.910578 -0.967673 -0.481349 -0.431696 -1.637847 1.798525 0.933859 -0.078555 0.136136 -0.378694 -0.601385 -0.209386 0.805822 0.993006 -0.308694 -1.440730 2.000603 1.126357 0.882007 -0.091987 -0.715213 -0.960718 -0.801818 0.395281 -0.294550 -0.035697 -1.625668 -1.087273 -1.048186 1.410924 -0.708920 2.325134 -1.011225 -0.705787 1.201872 -1.314124 -0.626297 0.988267 -1.334556 -0.293968 1.069077 -0.726906 1.414278 -0.086987 -0.809691 0.088186 -0.427205 -0.034844 -1.145272 -0.668019 1.512426 -0.574720 -1.335104 -0.967216 0.805816 -0.100449 -0.434661 0.492713 2.163655 -1.573280 0.141707 0.582345 -0.037709 -0.326682 1.525647 0.697580 2.417377 -0.047314 -1.775534 -1.030662 -0.090763 -0.689001 0.707890 -1.735678 -0.652695 -0.365329 -0.835474 -0.488789 -0.571856 -1.662538 -1.379217 0.552922 0.367307 -1.001747 -0.766515 1.591982 0.473432 2.198748 0.988724 0.701883 2.599796 0.993582 -1.238718 -0.376935 -1.700713 -0.208655 
proceedings -1.964716 1.685846 1.625263 2.062529 -1.297777 1.627718 -1.604221 2.034972 0.246413 0.227047 0.918556 -1.616248 0.139713 -0.667976 -0.663020 -0.902412 0.116944 1.592289 0.048377 -2.579273 0.521334 0.908519 -0.048653 -1.159660 1.908446 -1.443005 2.081201 0.694933 -0.579251 0.114893 -0.193829 0.013763 -0.798944 0.511218 -0.977110 -0.005353 -0.032147 0.636468 1.997757 0.800985 -0.041879 1.292000 0.484479 -1.553374 -1.563765 -1.131611 1.682842 0.520082 1.002415 -0.540364 0.249663 -2.278141 0.455684 0.136251 -1.116136 -1.539181 -1.935732 0.492009 0.921857 1.097981 1.325379 -1.005623 -0.437422 2.467466 0.497007 -1.578528 1.260454 -0.298497 -0.591310 -0.415553 -3.590307 -0.447574 -2.464964 -0.836856 -1.669049 -0.959269 0.235337 0.459265 -0.761021 1.542581 0.587522 0.340819 1.983218 1.108451 0.663159 -0.936088 1.132142 1.701274 1.187220 0.098650 1.385801 -0.426207 2.542404 -0.225701 2.825305 1.635294 1.341400 -0.768845 -1.487188 1.748393 -1.148688 1.362877 -1.089226 -2.293211 -0.872389 -1.896556 1.015947 1.345178 -1.208172 0.963351 0.778133 -0.898613 -0.365151 0.516427 -1.236700 0.264531 0.719055 1.518235 0.247685 -1.405676 0.953066 2.416663 0.139821 -1.153389 0.759804 -0.897964 0.890518 -1.305921 -0.025901 -0.899126 0.082742 -1.605887 -1.007161 0.603035 -0.114601 1.402041 -0.588268 -0.627290 1.172413 0.300429 -0.898062 1.226280 -1.738997 0.055248 1.337461 0.032528 2.629174 0.393968 -0.841557 0.197532 1.102659 -0.574174 -0.452514 -0.198921 0.901710 0.011089 -0.392924 -0.375493 1.258245 1.634689 0.867270 -0.557761 1.918533 -2.148945 -0.344364 0.423118 -1.635803 -0.089720 0.384159 0.407315 2.119668 0.665823 -1.698780 -1.346477 0.226935 -0.243246 0.089105 -1.831800 0.158272 -0.426260 -0.905317 0.645327 -0.877582 -1.046886 0.049489 0.027167 -1.052107 -0.841902 1.002637 1.349567 0.310280 1.170495 0.643340 0.941082 2.859156 0.301332 -1.040537 -0.761413 -2.219047 0.177120 
new -1.131329 -0.471903 2.396833 1.317703 -0.689025 -1.020912 0.610009 0.065121 -0.675330 0.809923 -0.003963 -1.475687 -2.515921 -0.209975 0.496643 -0.549742 -0.411020 2.465220 -0.329565 -0.217361 1.171223 1.561947 -0.264932 -0.060413 -0.148104 -0.654454 -0.541985 -0.246757 1.014207 0.665690 -0.669063 0.117642 -1.426375 3.245446 -1.133477 1.509624 -0.426402 0.375344 1.830261 0.080530 0.925618 -1.285369 -0.023906 -1.096960 1.025504 0.674508 -0.533398 -1.401962 0.760849 -0.059039 0.989732 -0.081523 -2.307591 -0.545526 -0.695359 1.222491 0.174375 1.096982 0.791619 0.429958 -1.226693 1.704591 1.405071 0.166933 -0.973775 2.003819 -1.000492 -1.193941 0.400178 1.943300 -0.513312 0.085410 0.670822 -0.526552 -0.900744 0.463258 -2.542160 -0.161855 0.256773 -0.726781 0.530309 -1.576380 0.627107 0.442390 0.359416 1.559999 -0.890232 -0.656176 0.802573 -0.869012 -1.907597 1.114559 0.601794 -0.628205 -0.868166 -0.021100 1.000187 -1.856845 -0.414053 -1.382528 0.574357 -0.425536 1.108796 0.821413 -0.089630 0.285903 -2.186503 1.440483 0.571162 -0.149776 -0.685455 -0.203649 0.102283 -1.778987 0.942649 0.171891 -0.391825 -0.069890 0.188942 0.481685 1.319458 1.353802 -0.655024 1.260327 -0.909367 -1.146381 -0.150869 -0.953620 -0.311919 1.204935 0.209489 -0.329547 -0.708762 0.695518 0.954857 0.148453 1.154225 0.689804 -0.043975 -2.026720 -0.735034 -0.428103 -0.189024 1.383420 2.077359 0.199941 -0.856254 -0.744205 1.548980 0.794701 0.199464 -0.421654 -0.939863 -1.257657 -0.833678 -0.658611 -0.612807 -1.918673 -1.052676 0.249708 0.425395 -0.560733 -0.503973 -1.021554 -0.245097 0.311004 0.151650 -0.268471 0.565276 0.376609 1.332869 -0.682338 1.506226 -0.175991 -0.525082 1.829784 0.713220 0.569727 -0.099587 0.973193 0.762189 -0.981652 1.340887 -0.671531 0.244460 -0.682633 0.181428 -1.604957 0.137989 0.054517 -0.846309 -0.426886 2.484922 -0.520104 0.264895 0.572414 -0.648042 0.439990 -1.410846 -0.554948 
york -0.946759 0.637526 2.642247 1.351129 -0.585725 -1.494700 1.157422 0.596936 0.378480 -0.323611 -0.042709 -0.386281 -2.207478 -0.973978 2.045101 -0.143042 -1.518449 2.068511 -0.508105 0.226697 0.728207 2.021057 -0.837977 -0.205826 0.907487 -0.874530 -0.120367 0.120131 1.206342 0.445428 0.370854 0.521288 -0.936080 3.098555 -0.690183 2.254370 0.416343 0.769709 1.546688 -0.484219 1.235255 -1.118211 0.365029 -1.434579 0.444004 1.328958 -1.757240 -1.225121 0.136922 0.433487 1.150306 -0.807882 -1.995066 -0.924188 -0.196302 1.382846 0.216488 0.371695 -0.457789 0.323761 0.105110 1.825207 0.977371 -0.634924 -0.459157 1.396119 -2.134608 -1.164950 0.160631 1.881017 -0.160648 0.235215 1.046220 0.226430 0.383096 1.222270 -3.451373 -0.676827 0.167066 -0.144937 0.380596 -0.861290 -0.070303 0.262790 0.358598 1.607695 -0.881085 -0.520506 1.829073 0.097697 -1.715077 0.442328 -0.249745 0.626703 -0.026015 0.677583 1.468156 -2.439142 0.487140 -2.302964 -0.066507 -0.687071 0.245016 0.591128 -0.721926 1.596922 -1.257785 1.715628 0.439506 -0.189700 -1.010532 -0.034102 -0.638837 -1.989965 1.503276 -0.185205 0.186186 -0.902467 -0.422554 0.157979 0.984123 2.098027 -0.679910 0.734536 -0.655600 -1.339921 0.476490 -0.542222 -0.572396 0.842775 0.460260 -0.735519 -0.018343 0.700985 1.015090 -0.507881 1.701487 1.301133 0.186040 -2.376159 -0.753047 -0.587916 0.027053 1.680176 3.177864 0.167589 -1.245206 -0.052160 0.632258 1.075578 0.831851 -0.533878 -0.622359 -1.303191 -0.714317 -0.783814 0.022734 -1.959791 -0.774079 0.085702 -0.824717 0.116818 -1.008106 -1.078140 -0.645532 0.525045 -0.364681 -0.543299 0.149433 0.318260 1.685275 -1.086668 1.145730 -0.023139 -0.934391 1.309488 0.878383 0.434805 -0.091816 1.238343 0.878939 -0.464045 0.803004 -0.962259 0.319337 -1.002609 -0.193579 -2.199359 -0.756624 0.429185 -1.026569 -0.765614 3.337508 -0.116453 0.111832 0.331719 -0.534670 -0.072831 -1.894655 -1.090282 
royal -2.021080 0.609317 2.336021 2.009784 -1.154801 0.622276 -0.965327 1.269850 0.575961 0.903467 1.457173 -0.648751 -0.228660 -1.308784 -1.225339 -1.101412 0.054834 1.090936 0.638620 -0.977521 0.096809 0.616214 1.151243 -0.088630 0.247372 -1.107438 1.763636 0.278732 0.259162 0.228770 0.462718 1.769431 -1.379964 -1.445017 -1.052489 -0.177815 -0.619437 -0.267001 0.956483 0.970315 -0.318038 2.429872 0.501804 0.494869 -0.811792 -1.225008 1.725748 -0.787998 -0.224783 -1.195974 -0.371372 -1.753885 1.286702 -0.029213 0.029042 -0.866491 -0.736211 -0.094829 0.874177 0.917545 2.028044 -1.244803 -0.081708 1.514311 -0.613326 -0.340255 1.447323 1.269402 -0.935957 0.109743 -2.897606 0.219463 -1.275823 -1.488324 -0.748779 -0.728755 1.230665 -0.539291 -1.024162 -0.270310 2.093980 -1.370951 1.434955 -0.018340 0.559464 0.044209 0.850152 -0.404261 0.800457 2.441099 1.503482 0.561625 1.396984 1.898334 1.339345 0.397963 0.815621 0.248809 -1.040470 1.621839 -1.167918 -0.152720 -1.653739 -3.647476 1.051741 -0.734963 0.626144 -0.429488 -2.534422 2.312625 0.350897 -0.950957 -0.408702 -0.656430 -0.298476 -0.493999 0.200932 1.472921 0.948490 -1.340149 2.614064 2.162116 1.041342 -1.034965 -0.373873 -0.556398 -0.022374 0.106233 -0.665693 0.188075 0.151898 -0.411290 -3.000870 -0.183658 0.775258 2.209340 -0.492203 0.140298 1.083092 0.342051 -0.315107 0.660880 -0.741252 0.183539 -0.591223 -0.732784 2.708375 0.324067 -0.810313 -0.503782 0.207742 -0.927187 0.808281 -0.682121 1.599132 -1.574610 0.402801 -1.147744 1.501729 -0.040193 -0.364500 -1.452248 1.612297 -1.647725 0.399567 0.462835 -0.573252 -0.593044 1.447283 1.659091 1.998349 -0.227192 -2.217967 -0.611743 0.842107 0.278726 -0.515642 -2.369504 -0.901273 -1.619969 -1.260295 -0.096352 0.204458 -1.564354 -1.195676 -0.070913 1.505608 -0.277865 -0.529624 1.021780 0.382227 1.472136 -0.770610 0.407812 2.858817 0.072200 -1.296850 -0.205566 -0.957925 -1.079744 
ny -0.379451 0.793049 3.203477 1.632947 -0.531273 -0.367505 0.797676 0.454338 -0.654119 0.183332 0.643607 -0.272154 -2.345138 0.530568 1.635998 -0.957208 -1.229347 3.432391 -1.412705 0.681509 1.736870 2.052947 -0.588026 -0.019288 0.934532 -1.026972 -0.322990 -0.018624 0.754917 0.032478 -0.068150 0.870985 -0.895012 2.506105 -0.282951 2.038550 -0.459969 -0.099023 1.969059 -0.648890 1.752993 -1.304610 0.465035 -1.183799 0.175555 1.011542 -0.578865 -1.804318 1.327888 1.041320 1.247550 -0.252819 -2.825258 -0.875797 -1.124037 2.005290 -0.178381 0.668751 -0.056039 0.102545 -0.503232 2.195945 1.180291 -0.549658 -1.432969 1.567193 -1.823513 -0.788840 -0.525419 1.873751 -1.103840 -0.215141 1.489764 -0.295976 0.059834 0.005564 -3.054035 -1.206755 0.668335 -0.276816 0.543229 -0.356121 0.815928 0.954310 0.455372 1.309726 -0.660973 0.187381 0.708592 0.083515 -1.586449 -0.422696 -0.576222 0.137078 0.048073 0.835790 1.561711 -2.469144 0.423043 -1.474810 0.050240 -1.293444 -0.238548 1.237732 -0.325702 0.937690 -2.421464 1.012269 0.619389 0.677996 -0.635590 0.012241 0.012789 -1.594379 2.064453 -0.869473 0.608040 -0.839160 -0.076641 0.330445 0.825240 1.146961 -0.148306 1.133606 0.104573 -1.370626 0.440392 -0.416604 0.148087 1.042373 -0.225842 -1.354657 -1.174565 0.166894 0.991199 0.481843 1.142123 0.878830 -0.162505 -1.766421 -0.611733 -1.638852 0.615335 1.692949 3.845873 -0.086760 -1.690098 -0.558444 0.837016 1.554940 0.746012 -0.846479 -0.895310 -2.145488 -1.351037 -0.356910 0.046457 -1.744234 -0.566782 0.055417 0.073144 -0.611062 -1.496117 -0.270176 -0.598652 -0.029125 0.135479 -0.030951 0.947613 -0.117701 1.071860 -0.397291 2.126624 -0.092096 -0.731577 1.768264 1.034466 1.004203 -0.562799 1.187353 1.119569 -1.292451 1.229025 -1.049776 0.784391 -1.084890 0.717974 -1.734240 0.811133 0.552676 -0.291226 -0.612363 2.883141 -0.228233 -0.687049 0.441385 -0.600055 -0.301868 -1.368820 -1.464341 
on -0.254990 0.463386 -0.619471 -0.100017 -1.081017 -0.231735 -0.105432 1.627926 0.574487 0.493972 1.239261 0.312194 0.776148 -1.331988 1.220418 -0.225140 0.371096 -0.941521 -0.199678 -0.630164 0.010537 0.245198 -0.858554 1.221348 0.456684 -0.141102 0.273487 -1.099882 0.871535 -2.381405 -1.617806 -0.195565 -2.743969 0.637153 1.513297 -0.069822 0.313842 0.682500 0.219800 0.533578 -0.607015 -0.002220 0.044680 0.659641 1.197649 -1.385959 -1.041937 -0.738612 0.923245 -0.122024 0.696692 -1.998345 -0.065290 -0.372539 -1.984302 0.609172 -0.596096 -0.556363 1.685882 1.795090 -0.188281 -1.106724 -0.076915 0.048981 -0.050366 0.889732 -0.134804 0.539897 0.333444 -0.315090 -0.547413 -0.245920 0.694181 0.953037 -1.819155 -0.186061 1.562095 -0.684522 -0.551274 -0.912458 1.504690 0.074033 -0.636902 1.006909 0.033622 0.024973 -0.734918 -0.461722 0.894754 -1.413826 1.369588 -1.769804 -0.398037 -0.396564 0.794225 -0.392979 -0.055652 -0.047563 -1.375898 0.161022 0.241464 0.756313 -0.731610 -0.924783 0.313406 0.557070 -0.042205 0.025255 0.995183 -1.047956 -0.560163 -1.377723 0.669773 0.056842 -1.384608 0.185374 -0.739682 -1.130151 -1.028755 -0.533933 0.453460 1.145536 -1.578684 -0.076130 -1.421635 -0.935608 0.082234 1.081033 -0.290360 0.734301 -0.207121 0.555540 0.606053 0.650770 -0.226322 -1.303808 0.200578 0.435454 0.625880 -0.888932 -1.364829 0.707021 0.297053 0.392202 0.796328 1.466324 0.278395 -1.518315 -0.146044 -0.145775 -0.283488 -0.627337 0.227001 0.516694 -0.944767 -0.486187 -0.736645 0.198350 0.859023 -0.040069 1.169299 0.153345 -0.172500 -0.963814 -0.323547 0.736870 -0.851004 -0.086927 -1.251961 -0.498500 1.167069 0.709994 -0.095339 0.926559 0.913820 -0.770372 -0.713677 0.158871 0.127625 -1.200612 0.262069 -0.803196 0.814491 0.031666 -0.004379 -0.594608 1.170003 -0.948565 -0.037199 -0.238432 0.704978 0.395622 -0.106867 -0.605308 -0.181878 -0.439820 0.911309 0.979853 -0.115962 -0.009641 
science -0.231550 0.502555 3.596638 1.214654 -0.311851 -0.969246 -1.104290 -0.713043 -0.821830 -0.356122 0.093096 -1.250846 -3.438286 -1.216994 1.038544 -0.749151 -0.624206 2.409120 -1.355833 0.012097 0.573839 0.295242 0.081982 0.474291 0.955174 -1.123572 0.423753 0.237133 0.582694 -0.094801 -0.000171 -0.706330 -0.297982 2.935027 -0.859053 1.916334 2.869083 1.423043 2.236893 -0.709405 2.261174 -1.324675 0.484735 -1.526631 1.512452 1.886498 0.049486 -2.249121 0.464806 0.111411 1.403372 -0.701804 -2.110021 -0.719230 -0.327944 1.568285 -0.429837 0.577795 0.959637 0.014295 -0.312819 2.370878 0.166117 -1.833915 -1.505222 2.395282 -1.902344 -0.080461 -0.421276 2.881992 -1.951242 0.137807 0.537976 -0.752216 -0.778115 -0.272470 -3.701298 -1.322901 0.555534 -1.274438 -0.422148 -1.421141 0.479850 2.324136 -0.511721 1.599321 -0.777895 -0.193347 1.940685 0.610203 -2.666005 -0.840819 -0.184858 -0.790211 0.742641 0.406164 1.815668 -2.442829 -0.871733 -2.432429 0.911420 -0.245963 0.848096 0.555888 -0.065423 1.537388 -1.093390 1.110887 1.091682 -0.435997 -0.838026 -0.446030 0.624686 -0.477525 0.914051 0.090264 -0.716579 -0.980468 0.688952 0.562316 2.001836 2.710505 -0.096117 2.161744 0.292216 -1.435473 1.323279 -0.349259 -0.016681 0.923531 0.974681 -0.812758 -0.234328 1.051150 1.034744 0.834173 0.854463 -0.040077 0.412624 -1.067600 -0.828008 -0.715590 -0.085760 1.746818 3.133890 -0.267235 -0.618982 -0.508623 0.352165 0.669944 -0.455539 0.492073 -0.578031 -1.689265 -2.682253 -1.025542 -1.449942 -1.497828 -0.241997 0.247905 1.058153 -1.217578 -0.522165 -1.539145 -0.600409 -0.054679 -0.165109 -0.468703 -0.892323 0.089797 1.048043 -0.734377 1.497870 0.018635 -1.169251 2.792749 0.449019 0.718434 -1.632584 0.903795 0.896424 -0.816546 1.042562 0.163600 0.362626 -0.588785 0.738796 -0.600634 -0.361749 -0.626470 -1.061030 0.198351 2.933540 -1.248612 0.543221 0.888847 -0.439735 0.591991 -0.410987 0.509653 
british 0.838381 -0.431059 2.086807 -0.922885 -3.686006 -0.528808 1.530234 -1.619728 2.432776 -1.085249 2.080917 1.568466 -1.127616 -0.713038 -2.050615 -2.045175 -0.501509 -1.853593 1.908290 0.557514 2.008104 0.067858 -2.100605 1.136334 2.046043 -0.657477 -0.972348 -0.183625 1.223448 -1.271626 -0.868439 1.368912 -1.517297 1.337555 -1.149627 -1.667820 -1.110525 -0.198734 -0.089627 0.515086 -0.907528 2.189725 -0.342302 1.313361 -1.322112 -0.382499 -2.047570 -1.375109 1.561938 -1.597368 0.971100 -0.066947 0.968337 -1.479077 -1.966016 0.713496 1.181804 -1.898478 1.746987 2.419064 -0.252864 0.504318 -1.548594 1.759735 0.152857 -0.109371 3.874324 0.441675 -3.047728 2.079153 0.495996 -1.727477 -0.657953 -1.036540 -0.987738 -0.361130 2.026902 -1.104790 -2.865192 -0.146498 0.165986 0.207546 0.244390 2.580454 1.952423 0.444617 -1.092841 -0.101966 -0.109412 -0.112324 1.886133 0.097046 1.695650 -0.883239 -0.522310 0.181271 0.569316 -2.527729 1.476733 2.077783 0.401484 1.531087 -0.772846 -0.964216 1.185246 -0.611248 1.247647 1.094349 -1.953416 1.975778 -0.993001 -0.992143 -0.380877 -0.042309 -0.512307 0.150408 -0.067614 -1.513519 0.888168 0.437672 1.302390 -0.185290 0.523278 -0.882690 -0.919496 0.046622 0.262298 0.235109 -0.836502 1.701422 -0.953465 -0.187648 -2.481958 1.261063 -0.166427 -0.520578 2.441463 0.370988 1.287397 1.280160 -1.300226 0.022496 -0.551022 -0.545377 -0.986231 1.025404 0.130154 1.875856 -1.835131 0.830955 1.469683 -1.102507 -0.675795 1.519837 -0.508039 -1.446725 -0.782554 -1.059023 -0.393949 1.223608 -1.921341 -0.527147 1.952601 0.278186 -2.244688 -1.015143 0.411188 1.164164 -0.017156 0.217297 1.050578 1.780545 -2.931507 -0.794447 2.375277 1.013986 2.581903 1.590483 -1.450899 -1.362151 1.052604 0.733940 1.440782 -1.431812 -0.376538 0.756180 0.542464 -2.113291 -2.299822 -0.004572 2.222291 1.953922 -1.046510 0.628911 -0.108602 -0.902789 -0.500199 1.039194 -1.621101 0.965452 
with -0.018068 -0.162960 -1.958460 -1.436144 0.193163 0.064372 -0.602305 -0.594885 0.194901 -0.018833 0.227680 0.392604 0.129345 -1.799031 -2.136988 -1.252326 -0.657181 -0.726132 1.123584 0.079719 0.119201 -0.760033 0.007537 -0.019002 -0.650171 -0.582483 0.522841 -0.502529 -0.920751 -0.818275 0.177102 -0.402992 0.189782 -0.440094 -1.488575 0.787482 1.627258 -0.697914 0.293985 0.161335 0.639305 -0.016338 0.105009 1.537073 0.961338 1.174168 0.446091 -0.409521 0.034223 -1.602955 -1.351839 -0.834781 0.167411 0.703310 0.358561 0.113909 0.514811 -0.087258 1.461448 0.689081 1.313266 -1.320005 0.718533 -0.852492 0.620256 -0.199661 0.177649 0.033913 1.068072 -0.508703 -0.200075 -0.702461 -0.515682 -0.585258 0.223755 0.285553 1.142318 1.217490 -0.181308 0.445944 1.229771 -0.329802 1.317904 -0.856148 -1.632761 0.342810 0.897483 -0.081776 0.292364 -0.557227 0.649451 -0.959818 -0.085218 -0.013081 -0.348867 0.639896 1.121275 -0.469976 -0.376408 0.936632 0.452376 0.915145 -0.400475 -0.961648 -0.139511 -0.633060 -0.939198 -0.146762 -0.421471 0.418665 0.744488 -0.020299 -0.766443 -0.131739 0.278865 0.258846 -0.090789 -0.010226 1.193722 -0.533338 -0.355312 -1.238396 1.162958 -0.687178 -0.169559 -0.687316 0.666931 -0.585643 0.863960 -0.303493 -0.238428 -0.466919 -0.405776 -0.615085 -1.156852 -0.551656 -1.316429 0.075777 -0.878788 0.849588 -1.195785 0.476663 0.783172 -1.145665 -2.475834 0.572443 -1.012219 0.748766 -0.242367 -0.391339 -0.086148 0.494466 -0.345227 -0.172403 1.539379 1.045263 0.775847 0.565878 -0.499623 -0.277019 0.308062 1.283225 -0.653308 0.779911 0.532021 0.063660 0.018425 -0.353145 0.250220 -0.345618 0.893170 2.297276 -0.391066 0.121320 0.814782 -1.527678 -0.860968 0.395313 0.130479 -1.719666 0.591234 0.453213 -0.355633 1.917870 0.912631 -0.317163 0.687021 0.901842 0.037517 0.518440 -0.692889 -0.067269 -0.135571 -0.966652 0.071701 0.686086 -0.306049 0.076105 -0.592663 -0.782899 